digraph Tree {
node [shape=box, style="filled, rounded", color="black", fontname="helvetica"] ;
edge [fontname="helvetica"] ;
0 [label="x[2] <= -0.732\ngini = 0.667\nsamples = 120\nvalue = [40, 41, 39]\nclass = 1", fillcolor="#fdfffd"] ;
1 [label="gini = 0.0\nsamples = 40\nvalue = [40, 0, 0]\nclass = 0", fillcolor="#e58139"] ;
0 -> 1 [labeldistance=2.5, labelangle=45, headlabel="True"] ;
2 [label="x[2] <= 0.586\ngini = 0.5\nsamples = 80\nvalue = [0, 41, 39]\nclass = 1", fillcolor="#f5fef9"] ;
0 -> 2 [labeldistance=2.5, labelangle=-45, headlabel="False"] ;
3 [label="gini = 0.053\nsamples = 37\nvalue = [0, 36, 1]\nclass = 1", fillcolor="#3ee684"] ;
2 -> 3 ;
4 [label="gini = 0.206\nsamples = 43\nvalue = [0, 5, 38]\nclass = 2", fillcolor="#9253e8"] ;
2 -> 4 ;
}